[{"weight0": [[0.4760313332080841, 2.205317497253418, -1.295347809791565, -0.697817325592041, 0.2568507492542267, -0.19105170667171478], [1.6656277179718018, -0.3344421684741974, 0.8049976229667664, 0.7198015451431274, 0.08494026958942413, 0.061119526624679565], [-1.659286618232727, -0.6763629913330078, -0.0023170660715550184, -1.214735746383667, 1.0337944030761719, -2.0275425910949707], [0.5671776533126831, -3.241752862930298, 0.05828334391117096, -1.8080494403839111, 0.1340663582086563, -0.6039106249809265], [-0.35762035846710205, 1.723260521888733, -0.028115982189774513, 0.595669150352478, 1.2631171941757202, 1.1681580543518066], [0.49160629510879517, -0.7312036156654358, -1.3294867277145386, 0.7197885513305664, -0.3869490921497345, -0.29352930188179016]], "bias0": [0.03452331945300102, -1.1511610746383667, -0.4802113175392151, -0.7467160224914551, 0.37334296107292175, -0.4900491237640381], "alpha0": 0.17205417156219482, "beta0": 1.8175128698349, "weight1": [[1.5743625164031982, 2.89505934715271, 1.844191551208496, -0.10095373541116714, -0.5729089975357056, -1.1667358875274658], [1.0074882507324219, 0.8318454027175903, -1.6021567583084106, 2.0158536434173584, 2.473475217819214, -0.709514319896698], [1.584934115409851, 1.6031454801559448, -2.9109745025634766, 1.495455265045166, -0.9654307961463928, 1.161699891090393], [0.4499882757663727, 1.2450685501098633, -1.4674491882324219, -0.8938518762588501, -0.9374411106109619, -3.166975736618042], [0.35651734471321106, -0.7143552303314209, -0.895155131816864, 0.48851361870765686, -1.4423996210098267, -3.073430061340332], [0.47338104248046875, -0.5840237736701965, 1.8250101804733276, -1.7570935487747192, 0.7413765788078308, 4.814511775970459]], "bias1": [-1.8152217864990234, -0.5265466570854187, -1.8070060014724731, 1.038312315940857, 2.6882987022399902, 2.189706802368164], "alpha1": 0.2272764891386032, "beta1": 5.801337718963623, "weight2": [[-1.5063189268112183, -0.2879992127418518, -2.396129846572876, -1.7575091123580933, 1.950969934463501, 2.119584798812866], [3.1571054458618164, -0.2194078415632248, 2.4540767669677734, 2.367476224899292, 2.6863489151000977, -2.5877933502197266], [1.836045503616333, -0.7790610194206238, 1.8529132604599, -1.923321008682251, -3.357887029647827, 1.7037702798843384], [2.18170166015625, 1.5854578018188477, 0.5369121432304382, 0.612970232963562, -1.4236090183258057, 0.9845017194747925], [3.1293091773986816, 1.8847006559371948, -1.3924564123153687, -3.0104005336761475, -2.088167190551758, -1.7909598350524902], [1.9591933488845825, -0.39298179745674133, -1.4748355150222778, 3.1142916679382324, -2.3401432037353516, 0.7037645578384399]], "bias2": [2.5826287269592285, -0.5747529864311218, 0.9227017164230347, -1.7516143321990967, 0.5222854018211365, -0.420956015586853], "alpha2": 0.07951349765062332, "beta2": 0.9231905937194824, "weight3": [[3.1160078048706055, -0.8988268971443176, -1.2669646739959717, -2.839632034301758, 4.606454849243164, 1.0314035415649414], [3.22035813331604, 0.1139671802520752, -4.281890392303467, 0.32395270466804504, -5.1635332107543945, -3.540257215499878], [1.886104702949524, 5.275890350341797, -0.18356002867221832, -1.3342105150222778, 4.885409355163574, -2.794680595397949], [3.2103805541992188, 3.9174396991729736, -2.5864944458007812, -0.609928548336029, 0.5256906747817993, -3.2239460945129395], [2.6499998569488525, -5.809977054595947, -2.2059860229492188, -1.7215230464935303, -1.6434781551361084, 2.6137142181396484], [0.19156967103481293, -3.087277412414551, 1.4124001264572144, -1.4226970672607422, 3.9475817680358887, 3.4129767417907715]], "bias3": [0.814074695110321, 3.923492193222046, -3.8341448307037354, -4.053656578063965, 4.519692420959473, -4.288094997406006]}, {"weight0": [[0.4760313332080841, -2.205317497253418, 1.295347809791565, 0.697817325592041, 0.2568507492542267, -0.19105170667171478], [1.6656277179718018, 0.3344421684741974, -0.8049976229667664, -0.7198015451431274, 0.08494026958942413, 0.061119526624679565], [-1.659286618232727, 0.6763629913330078, 0.0023170660715550184, 1.214735746383667, 1.0337944030761719, -2.0275425910949707], [0.5671776533126831, 3.241752862930298, -0.05828334391117096, 1.8080494403839111, 0.1340663582086563, -0.6039106249809265], [-0.35762035846710205, -1.723260521888733, 0.028115982189774513, -0.595669150352478, 1.2631171941757202, 1.1681580543518066], [0.49160629510879517, 0.7312036156654358, 1.3294867277145386, -0.7197885513305664, -0.3869490921497345, -0.29352930188179016]], "bias0": [0.03452331945300102, -1.1511610746383667, -0.4802113175392151, -0.7467160224914551, 0.37334296107292175, -0.4900491237640381], "alpha0": 0.17205417156219482, "beta0": 1.8175128698349, "weight1": [[1.5743625164031982, 2.89505934715271, 1.844191551208496, -0.10095373541116714, -0.5729089975357056, -1.1667358875274658], [1.0074882507324219, 0.8318454027175903, -1.6021567583084106, 2.0158536434173584, 2.473475217819214, -0.709514319896698], [1.584934115409851, 1.6031454801559448, -2.9109745025634766, 1.495455265045166, -0.9654307961463928, 1.161699891090393], [0.4499882757663727, 1.2450685501098633, -1.4674491882324219, -0.8938518762588501, -0.9374411106109619, -3.166975736618042], [0.35651734471321106, -0.7143552303314209, -0.895155131816864, 0.48851361870765686, -1.4423996210098267, -3.073430061340332], [0.47338104248046875, -0.5840237736701965, 1.8250101804733276, -1.7570935487747192, 0.7413765788078308, 4.814511775970459]], "bias1": [-1.8152217864990234, -0.5265466570854187, -1.8070060014724731, 1.038312315940857, 2.6882987022399902, 2.189706802368164], "alpha1": 0.2272764891386032, "beta1": 5.801337718963623, "weight2": [[-1.5063189268112183, -0.2879992127418518, -2.396129846572876, -1.7575091123580933, 1.950969934463501, 2.119584798812866], [3.1571054458618164, -0.2194078415632248, 2.4540767669677734, 2.367476224899292, 2.6863489151000977, -2.5877933502197266], [1.836045503616333, -0.7790610194206238, 1.8529132604599, -1.923321008682251, -3.357887029647827, 1.7037702798843384], [2.18170166015625, 1.5854578018188477, 0.5369121432304382, 0.612970232963562, -1.4236090183258057, 0.9845017194747925], [3.1293091773986816, 1.8847006559371948, -1.3924564123153687, -3.0104005336761475, -2.088167190551758, -1.7909598350524902], [1.9591933488845825, -0.39298179745674133, -1.4748355150222778, 3.1142916679382324, -2.3401432037353516, 0.7037645578384399]], "bias2": [2.5826287269592285, -0.5747529864311218, 0.9227017164230347, -1.7516143321990967, 0.5222854018211365, -0.420956015586853], "alpha2": 0.07951349765062332, "beta2": 0.9231905937194824, "weight3": [[3.1160078048706055, -0.8988268971443176, -1.2669646739959717, -2.839632034301758, 4.606454849243164, 1.0314035415649414], [3.22035813331604, 0.1139671802520752, -4.281890392303467, 0.32395270466804504, -5.1635332107543945, -3.540257215499878], [1.886104702949524, 5.275890350341797, -0.18356002867221832, -1.3342105150222778, 4.885409355163574, -2.794680595397949], [3.2103805541992188, 3.9174396991729736, -2.5864944458007812, -0.609928548336029, 0.5256906747817993, -3.2239460945129395], [2.6499998569488525, -5.809977054595947, -2.2059860229492188, -1.7215230464935303, -1.6434781551361084, 2.6137142181396484], [0.19156967103481293, -3.087277412414551, 1.4124001264572144, -1.4226970672607422, 3.9475817680358887, 3.4129767417907715]], "bias3": [0.814074695110321, 3.923492193222046, -3.8341448307037354, -4.053656578063965, 4.519692420959473, -4.288094997406006]}, {"weight0": [[1.0215576887130737, 1.2246595621109009, 2.0776429176330566, 0.40711677074432373, -1.2675856351852417, 0.8334929943084717], [-1.3918203115463257, 1.321332335472107, 0.9865685105323792, 0.9783017635345459, 0.9691689610481262, -1.1713438034057617], [-0.5994129776954651, -1.3204104900360107, 2.7240283489227295, -1.1482889652252197, 0.3360520601272583, 1.2427998781204224], [0.9755284190177917, 1.0951389074325562, 2.0837173461914062, -1.2454249858856201, 0.35013866424560547, -0.8563127517700195], [1.454495906829834, -3.3574819564819336, 0.1309681236743927, 2.3548221588134766, 0.9738291501998901, -0.7060897946357727], [-0.036961764097213745, 1.1793354749679565, 0.6211668252944946, -0.8510419726371765, 1.1511037349700928, 1.224927306175232]], "bias0": [0.3905884623527527, 1.0158578157424927, 1.3821889162063599, -1.2010645866394043, -0.3810942471027374, -1.084128737449646], "alpha0": 0.6370562314987183, "beta0": 3.219996929168701, "weight1": [[-2.1806695461273193, -0.4418868124485016, 0.827706515789032, 0.9315203428268433, 0.6246839761734009, -0.14942191541194916], [-0.5288792848587036, -0.7640455365180969, 1.0755329132080078, -2.8135101795196533, -0.9495183229446411, 0.478166788816452], [-2.0608716011047363, -1.0765882730484009, 0.2655636668205261, 2.6916377544403076, 1.2982606887817383, 1.4661328792572021], [-0.19136366248130798, 2.563715934753418, 1.9985944032669067, -2.2336862087249756, 0.5773972868919373, 0.1245514303445816], [-1.1373307704925537, 1.1555472612380981, -1.718199610710144, 0.7404592633247375, 0.7059112191200256, 2.9292688369750977], [1.8031396865844727, -2.0281565189361572, -0.9090907573699951, 1.196732759475708, 1.9839614629745483, 1.9558885097503662]], "bias1": [2.472133159637451, 1.4669592380523682, -1.564732551574707, -0.7653850317001343, 0.04311434552073479, -1.0849276781082153], "alpha1": 0.27788347005844116, "beta1": 1.4417717456817627, "weight2": [[0.8876087665557861, -0.6819082498550415, -1.6865369081497192, 1.0777029991149902, -1.1130194664001465, -2.3666880130767822], [-0.8622825741767883, -1.778266429901123, -0.8267174959182739, -0.6183250546455383, 1.979459524154663, 3.25970721244812], [0.8388476967811584, 1.0250353813171387, 2.6460084915161133, -2.3577327728271484, 0.6936442255973816, 1.9694430828094482], [-0.8828087449073792, 1.074164867401123, 3.546154260635376, -0.5195329785346985, 0.8015636205673218, 0.2779736816883087], [-1.9968146085739136, 1.1540234088897705, 2.8466267585754395, 1.1596367359161377, 3.791545867919922, 0.9673408269882202], [-1.7188615798950195, -2.065551996231079, -3.8392586708068848, 1.3611602783203125, 4.200285911560059, 1.7028077840805054]], "bias2": [-0.08208267390727997, 1.0516128540039062, -0.8300326466560364, 1.2226622104644775, -2.802201986312866, 1.9808334112167358], "alpha2": 0.13218657672405243, "beta2": 7.81458854675293, "weight3": [[-1.4326698780059814, 4.389596462249756, 4.254740238189697, 4.639250755310059, 1.813493251800537, -2.8141963481903076], [-1.985278844833374, 2.049813985824585, 3.4821372032165527, -0.7018494009971619, 4.533348083496094, 0.63197922706604], [-2.6090662479400635, 4.964439868927002, 4.788581848144531, -1.02733314037323, -2.80881404876709, 4.863724231719971], [-4.828942775726318, -4.217221736907959, -2.6084463596343994, 0.744937002658844, 5.199406147003174, 4.809117317199707], [-0.38762515783309937, 1.8601603507995605, -3.7507801055908203, -4.490676403045654, -4.87611198425293, 5.037840366363525], [-2.926435708999634, -1.271903157234192, -2.49169921875, 1.7119402885437012, 1.8143116235733032, 5.07397985458374]], "bias3": [-1.8017250299453735, -2.420734167098999, -2.5679984092712402, -0.8646126985549927, 1.21758234500885, -1.8385566473007202]}, {"weight0": [[-0.8309449553489685, -2.4099841117858887, 0.0835275948047638, -0.9828637838363647, 0.6115342378616333, 0.4648369252681732], [-0.9313029050827026, 0.1953568160533905, 0.7902759909629822, 0.03360333293676376, 1.0214362144470215, -0.7969697117805481], [-1.4063445329666138, 0.5653989911079407, 1.8049970865249634, 0.5454412698745728, 0.33758172392845154, 0.8830755352973938], [1.116940975189209, 2.2738003730773926, 0.5779351592063904, -0.7313210964202881, 1.3197969198226929, 0.7891979217529297], [0.8252970576286316, -0.4286692142486572, 2.9593889713287354, -0.13159340620040894, -0.2966344356536865, -0.054236751049757004], [-1.6572012901306152, 1.6083431243896484, 0.15248167514801025, -0.5863472819328308, -0.9639045000076294, 0.7077160477638245]], "bias0": [0.4465336799621582, 1.4207929372787476, 0.11833325773477554, -1.188653588294983, -0.3497384190559387, 1.317001223564148], "alpha0": 0.960096001625061, "beta0": 7.0892486572265625, "weight1": [[0.11755521595478058, 0.27097997069358826, 0.6803949475288391, 0.8211366534233093, -0.11195338517427444, -1.5784481763839722], [0.048980794847011566, 0.5037417411804199, -1.5593738555908203, 0.7767836451530457, 0.4892764091491699, 0.016708480194211006], [-0.10654643923044205, -1.7337385416030884, -0.14946533739566803, 0.5591647624969482, 2.6973509788513184, -1.774613857269287], [-0.0646858662366867, -1.6989423036575317, -1.594264030456543, 0.4927016496658325, -0.5191594362258911, -1.6213775873184204], [-2.2004237174987793, -0.92454993724823, -0.4518468379974365, 1.6477656364440918, 0.5466545820236206, -1.026248812675476], [-0.8481190800666809, 1.223283052444458, -0.08475539833307266, -0.1657511293888092, 0.4406518042087555, -1.4885996580123901]], "bias1": [-1.2336305379867554, 1.8547974824905396, 0.06848499178886414, -0.3019421100616455, -1.3106344938278198, 2.2409908771514893], "alpha1": 0.10529930144548416, "beta1": 1.3034849166870117, "weight2": [[-0.09129488468170166, -1.7825130224227905, 3.214797019958496, 1.6992244720458984, 2.2784852981567383, 1.5638282299041748], [0.3405110836029053, 1.0921666622161865, 1.1889630556106567, -0.018630247563123703, -0.21481235325336456, -0.326528936624527], [-0.9229106307029724, 0.011623578146100044, -0.7704275250434875, -2.9991111755371094, -1.8258119821548462, 1.5585774183273315], [1.8426727056503296, 1.1196147203445435, 0.2563605308532715, -2.1848931312561035, -3.4411349296569824, -0.48037654161453247], [3.125504493713379, -0.4365917146205902, -2.576798677444458, -2.0779266357421875, -0.9166433215141296, 1.2374672889709473], [2.94406795501709, -1.3674781322479248, 2.672715663909912, 2.4860334396362305, 2.5823605060577393, -1.1879152059555054]], "bias2": [-2.434565544128418, -4.051526069641113, 3.1155614852905273, 2.322852373123169, -2.820159435272217, 0.16445031762123108], "alpha2": 0.11413130164146423, "beta2": 2.3022377490997314, "weight3": [[-1.7007824182510376, -0.23243288695812225, 1.1477041244506836, 2.784074544906616, -2.205435276031494, -4.750344276428223], [-0.10419031232595444, 2.995771646499634, -2.986496925354004, 1.9513461589813232, 1.19656503200531, -2.62100887298584], [-3.9022908210754395, 0.4021815359592438, 0.549700915813446, 3.6596360206604004, 4.24200439453125, -2.517369031906128], [-4.017838954925537, -4.157414436340332, 3.3725948333740234, 1.5531954765319824, 4.9004292488098145, 4.416019916534424], [-0.6055486798286438, -3.1735241413116455, 2.7311270236968994, 1.1620615720748901, -5.171359539031982, -4.542511463165283], [-2.9287185668945312, 1.837409496307373, 4.116538047790527, 0.46616417169570923, -4.627004623413086, -4.579892158508301]], "bias3": [-1.5261094570159912, 2.6808645725250244, 4.4036407470703125, 2.116790294647217, -2.8695693016052246, -1.7908579111099243]}, {"weight0": [[-0.8309449553489685, 2.4099841117858887, -0.0835275948047638, 0.9828637838363647, 0.6115342378616333, 0.4648369252681732], [-0.9313029050827026, -0.1953568160533905, -0.7902759909629822, -0.03360333293676376, 1.0214362144470215, -0.7969697117805481], [-1.4063445329666138, -0.5653989911079407, -1.8049970865249634, -0.5454412698745728, 0.33758172392845154, 0.8830755352973938], [1.116940975189209, -2.2738003730773926, -0.5779351592063904, 0.7313210964202881, 1.3197969198226929, 0.7891979217529297], [0.8252970576286316, 0.4286692142486572, -2.9593889713287354, 0.13159340620040894, -0.2966344356536865, -0.054236751049757004], [-1.6572012901306152, -1.6083431243896484, -0.15248167514801025, 0.5863472819328308, -0.9639045000076294, 0.7077160477638245]], "bias0": [0.4465336799621582, 1.4207929372787476, 0.11833325773477554, -1.188653588294983, -0.3497384190559387, 1.317001223564148], "alpha0": 0.960096001625061, "beta0": 7.0892486572265625, "weight1": [[0.11755521595478058, 0.27097997069358826, 0.6803949475288391, 0.8211366534233093, -0.11195338517427444, -1.5784481763839722], [0.048980794847011566, 0.5037417411804199, -1.5593738555908203, 0.7767836451530457, 0.4892764091491699, 0.016708480194211006], [-0.10654643923044205, -1.7337385416030884, -0.14946533739566803, 0.5591647624969482, 2.6973509788513184, -1.774613857269287], [-0.0646858662366867, -1.6989423036575317, -1.594264030456543, 0.4927016496658325, -0.5191594362258911, -1.6213775873184204], [-2.2004237174987793, -0.92454993724823, -0.4518468379974365, 1.6477656364440918, 0.5466545820236206, -1.026248812675476], [-0.8481190800666809, 1.223283052444458, -0.08475539833307266, -0.1657511293888092, 0.4406518042087555, -1.4885996580123901]], "bias1": [-1.2336305379867554, 1.8547974824905396, 0.06848499178886414, -0.3019421100616455, -1.3106344938278198, 2.2409908771514893], "alpha1": 0.10529930144548416, "beta1": 1.3034849166870117, "weight2": [[-0.09129488468170166, -1.7825130224227905, 3.214797019958496, 1.6992244720458984, 2.2784852981567383, 1.5638282299041748], [0.3405110836029053, 1.0921666622161865, 1.1889630556106567, -0.018630247563123703, -0.21481235325336456, -0.326528936624527], [-0.9229106307029724, 0.011623578146100044, -0.7704275250434875, -2.9991111755371094, -1.8258119821548462, 1.5585774183273315], [1.8426727056503296, 1.1196147203445435, 0.2563605308532715, -2.1848931312561035, -3.4411349296569824, -0.48037654161453247], [3.125504493713379, -0.4365917146205902, -2.576798677444458, -2.0779266357421875, -0.9166433215141296, 1.2374672889709473], [2.94406795501709, -1.3674781322479248, 2.672715663909912, 2.4860334396362305, 2.5823605060577393, -1.1879152059555054]], "bias2": [-2.434565544128418, -4.051526069641113, 3.1155614852905273, 2.322852373123169, -2.820159435272217, 0.16445031762123108], "alpha2": 0.11413130164146423, "beta2": 2.3022377490997314, "weight3": [[-1.7007824182510376, -0.23243288695812225, 1.1477041244506836, 2.784074544906616, -2.205435276031494, -4.750344276428223], [-0.10419031232595444, 2.995771646499634, -2.986496925354004, 1.9513461589813232, 1.19656503200531, -2.62100887298584], [-3.9022908210754395, 0.4021815359592438, 0.549700915813446, 3.6596360206604004, 4.24200439453125, -2.517369031906128], [-4.017838954925537, -4.157414436340332, 3.3725948333740234, 1.5531954765319824, 4.9004292488098145, 4.416019916534424], [-0.6055486798286438, -3.1735241413116455, 2.7311270236968994, 1.1620615720748901, -5.171359539031982, -4.542511463165283], [-2.9287185668945312, 1.837409496307373, 4.116538047790527, 0.46616417169570923, -4.627004623413086, -4.579892158508301]], "bias3": [-1.5261094570159912, 2.6808645725250244, 4.4036407470703125, 2.116790294647217, -2.8695693016052246, -1.7908579111099243]}, {"weight0": [[0.9701014161109924, -1.231184720993042, 1.4106366634368896, 0.9655903577804565, -0.4125390946865082, 0.009785988368093967], [-0.6371344923973083, -1.3076838254928589, 1.3205950260162354, -1.2214906215667725, 0.11447623372077942, -1.2125844955444336], [1.2112027406692505, 1.4651730060577393, 0.2687837481498718, 0.7285502552986145, 0.8635735511779785, -0.7830636501312256], [1.2584058046340942, -1.2422356605529785, -1.4661240577697754, -1.2804104089736938, 0.0710873231291771, 0.5913779735565186], [-0.7806137800216675, -0.6350685954093933, 0.40030986070632935, -0.8819448351860046, 1.3884456157684326, 1.542322039604187], [1.152944803237915, -0.15144839882850647, 2.356423854827881, -0.7589115500450134, -1.1552443504333496, 0.5723993182182312]], "bias0": [-0.33924251794815063, 0.5996388792991638, -1.7477030754089355, -1.0890741348266602, -0.31691375374794006, 0.04328971356153488], "alpha0": 0.46177324652671814, "beta0": 3.7452287673950195, "weight1": [[0.5391584634780884, -1.840620994567871, -1.799889326095581, 0.3027800917625427, -2.007852077484131, 1.5309021472930908], [-1.875505805015564, 0.019040150567889214, -1.5540982484817505, -1.9846892356872559, 0.3240167498588562, 0.6043561697006226], [1.0403895378112793, -0.015951916575431824, 1.223672866821289, 0.20002144575119019, -1.7419344186782837, -0.11489121615886688], [-0.9163576364517212, 1.9760502576828003, -2.1531529426574707, 1.5789289474487305, -1.6608378887176514, -0.5201321244239807], [0.7115501761436462, 1.0942823886871338, -1.6805992126464844, -1.654143214225769, 1.3228068351745605, -1.5466604232788086], [0.25355228781700134, 1.4737794399261475, -0.22263742983341217, 2.5722708702087402, 0.7937484979629517, 2.002568244934082]], "bias1": [1.4691826105117798, 1.561502456665039, 0.6055629849433899, 1.0465978384017944, 1.036684513092041, -1.0640103816986084], "alpha1": 3.0316321849823, "beta1": 2.4483089447021484, "weight2": [[-2.7464985847473145, -2.853423595428467, 1.2763850688934326, -1.9275840520858765, -2.738186836242676, 2.3628036975860596], [2.8652310371398926, -2.1342036724090576, 1.3769866228103638, -1.6397299766540527, -4.063083171844482, -0.7157680988311768], [-3.240987777709961, -4.093898296356201, -1.3698073625564575, 0.5336598753929138, 0.2800782322883606, 2.2064809799194336], [-2.2309701442718506, -2.6174118518829346, -1.0376372337341309, -4.066720008850098, -0.7714101672172546, -3.3101277351379395], [-1.4628535509109497, 2.0104384422302246, -0.9212915897369385, -0.9146411418914795, 2.9606218338012695, -3.519134044647217], [3.3618597984313965, 2.456023931503296, 2.845700979232788, 0.7959033250808716, 1.1450353860855103, 0.61001056432724]], "bias2": [-0.9137569665908813, 0.6356981992721558, 0.7684882879257202, -0.3429660201072693, 1.1430128812789917, 1.8971854448318481], "alpha2": 0.04352235049009323, "beta2": 7.023387908935547, "weight3": [[-0.221046581864357, -4.263197898864746, 1.8436670303344727, -4.666032791137695, 1.307707667350769, 0.4233325123786926], [3.0607354640960693, 1.0799000263214111, 3.9482977390289307, 4.101109027862549, 0.42490047216415405, -3.111785411834717], [-4.315133094787598, -1.0675501823425293, -2.81331205368042, 1.9897769689559937, 4.007077693939209, 2.887108564376831], [0.7620725035667419, -0.781058132648468, 0.23389555513858795, -4.766339302062988, -4.018946170806885, 1.3014897108078003], [-1.0824285745620728, -4.195140361785889, 4.177516460418701, 2.862135887145996, 3.6836154460906982, -2.4163401126861572], [3.478118658065796, -0.8883337378501892, 3.8895301818847656, 3.275735378265381, -2.418806552886963, -2.6905014514923096]], "bias3": [0.7871428728103638, -3.395312786102295, -0.6003668904304504, -0.8316900730133057, 3.038292169570923, -1.6705056428909302]}, {"weight0": [[1.073523759841919, -0.4896383583545685, -0.7900224328041077, 0.30063655972480774, -0.6868941187858582, -0.357129842042923], [-0.5616422295570374, -2.580526351928711, 0.46998292207717896, -2.3312878608703613, -0.9406076669692993, -0.9173421263694763], [1.2089632749557495, 0.5203350186347961, 0.31778502464294434, 0.5677323937416077, -0.9269278645515442, 1.8992788791656494], [1.4527112245559692, 2.5698013305664062, -2.1592330932617188, 0.20754234492778778, 0.8870047330856323, -2.0317373275756836], [1.5435254573822021, -0.10555901378393173, 0.9892460107803345, -0.37558314204216003, -0.1982187032699585, -0.8974555730819702], [1.267552137374878, -1.1025058031082153, 0.5525567531585693, -1.338173508644104, 0.808112382888794, 0.665285587310791]], "bias0": [-1.0257165431976318, 0.9178522229194641, 0.4914899170398712, -0.26006513833999634, -0.9198585748672485, -0.966602623462677], "alpha0": 2.489110231399536, "beta0": 2.253586530685425, "weight1": [[-2.712007522583008, 1.320559024810791, 0.9109461903572083, 0.11204966902732849, -0.7168848514556885, -2.1522631645202637], [-0.5907493829727173, -1.1647673845291138, 0.3154696524143219, -1.521733045578003, 3.0217971801757812, -0.06606131792068481], [-0.9615744352340698, 0.8856908082962036, 0.07590663433074951, -0.1272694617509842, -2.2715978622436523, 2.7746880054473877], [-0.5170888304710388, 2.2637054920196533, 1.7200143337249756, 0.04033442959189415, 1.6151669025421143, 1.612204909324646], [-1.226662278175354, -1.1477516889572144, -2.4776265621185303, -0.17124418914318085, 0.7651364207267761, 0.1752762645483017], [1.1339854001998901, 0.2750212252140045, 2.361629009246826, 2.071554660797119, 0.3645063042640686, 1.3779492378234863]], "bias1": [1.8691226243972778, -0.44748011231422424, -0.23594531416893005, -0.2232089340686798, -1.3597649335861206, -1.716829776763916], "alpha1": 0.13566720485687256, "beta1": 1.4616472721099854, "weight2": [[-1.9242984056472778, -2.3508970737457275, 1.0527642965316772, 3.0041286945343018, -1.6518375873565674, 1.7049834728240967], [-2.3065578937530518, 2.3384084701538086, 1.1157078742980957, -0.675477921962738, 2.9516000747680664, 1.1261276006698608], [-1.8471852540969849, 2.43316912651062, -0.20653417706489563, -2.661424160003662, 0.9300559759140015, 1.0957881212234497], [0.6852669715881348, 2.5188491344451904, -2.9901235103607178, 0.3802652359008789, -3.26126766204834, 2.292039155960083], [-3.020815372467041, 3.887497663497925, -0.5037621259689331, -0.41696903109550476, 0.9209930300712585, 1.403281807899475], [-0.17030462622642517, -0.5976774096488953, -1.5890898704528809, -1.4469799995422363, -1.031380295753479, 0.7347794771194458]], "bias2": [-0.8617070317268372, -3.414808511734009, 2.3763201236724854, -0.3646969795227051, 2.6365368366241455, 1.7529125213623047], "alpha2": 0.05840178206562996, "beta2": 6.654246807098389, "weight3": [[3.3883819580078125, 4.51893949508667, -3.2479684352874756, -3.0786454677581787, 0.024365637451410294, 2.4250476360321045], [-3.092125654220581, -5.22934103012085, 3.3944246768951416, 4.4324235916137695, -4.894370079040527, 0.32974350452423096], [1.0537934303283691, -4.705038547515869, -2.1178929805755615, 4.411031723022461, -3.074449062347412, 2.1924729347229004], [-4.25562047958374, 1.3110756874084473, 4.39461612701416, -2.511322498321533, -4.641818046569824, -3.926478624343872], [2.57651686668396, 4.4391703605651855, -2.6304328441619873, 3.9592974185943604, -4.29512882232666, 1.012836217880249], [-3.4166300296783447, 5.04923152923584, 2.1132423877716064, -1.355933666229248, 5.231799602508545, 2.87166166305542]], "bias3": [1.0398064851760864, -1.2896804809570312, 1.2072532176971436, -0.4019172489643097, 0.06824731826782227, 0.0018615173175930977]}, {"weight0": [[1.073523759841919, 0.4896383583545685, 0.7900224328041077, -0.30063655972480774, -0.6868941187858582, -0.357129842042923], [-0.5616422295570374, 2.580526351928711, -0.46998292207717896, 2.3312878608703613, -0.9406076669692993, -0.9173421263694763], [1.2089632749557495, -0.5203350186347961, -0.31778502464294434, -0.5677323937416077, -0.9269278645515442, 1.8992788791656494], [1.4527112245559692, -2.5698013305664062, 2.1592330932617188, -0.20754234492778778, 0.8870047330856323, -2.0317373275756836], [1.5435254573822021, 0.10555901378393173, -0.9892460107803345, 0.37558314204216003, -0.1982187032699585, -0.8974555730819702], [1.267552137374878, 1.1025058031082153, -0.5525567531585693, 1.338173508644104, 0.808112382888794, 0.665285587310791]], "bias0": [-1.0257165431976318, 0.9178522229194641, 0.4914899170398712, -0.26006513833999634, -0.9198585748672485, -0.966602623462677], "alpha0": 2.489110231399536, "beta0": 2.253586530685425, "weight1": [[-2.712007522583008, 1.320559024810791, 0.9109461903572083, 0.11204966902732849, -0.7168848514556885, -2.1522631645202637], [-0.5907493829727173, -1.1647673845291138, 0.3154696524143219, -1.521733045578003, 3.0217971801757812, -0.06606131792068481], [-0.9615744352340698, 0.8856908082962036, 0.07590663433074951, -0.1272694617509842, -2.2715978622436523, 2.7746880054473877], [-0.5170888304710388, 2.2637054920196533, 1.7200143337249756, 0.04033442959189415, 1.6151669025421143, 1.612204909324646], [-1.226662278175354, -1.1477516889572144, -2.4776265621185303, -0.17124418914318085, 0.7651364207267761, 0.1752762645483017], [1.1339854001998901, 0.2750212252140045, 2.361629009246826, 2.071554660797119, 0.3645063042640686, 1.3779492378234863]], "bias1": [1.8691226243972778, -0.44748011231422424, -0.23594531416893005, -0.2232089340686798, -1.3597649335861206, -1.716829776763916], "alpha1": 0.13566720485687256, "beta1": 1.4616472721099854, "weight2": [[-1.9242984056472778, -2.3508970737457275, 1.0527642965316772, 3.0041286945343018, -1.6518375873565674, 1.7049834728240967], [-2.3065578937530518, 2.3384084701538086, 1.1157078742980957, -0.675477921962738, 2.9516000747680664, 1.1261276006698608], [-1.8471852540969849, 2.43316912651062, -0.20653417706489563, -2.661424160003662, 0.9300559759140015, 1.0957881212234497], [0.6852669715881348, 2.5188491344451904, -2.9901235103607178, 0.3802652359008789, -3.26126766204834, 2.292039155960083], [-3.020815372467041, 3.887497663497925, -0.5037621259689331, -0.41696903109550476, 0.9209930300712585, 1.403281807899475], [-0.17030462622642517, -0.5976774096488953, -1.5890898704528809, -1.4469799995422363, -1.031380295753479, 0.7347794771194458]], "bias2": [-0.8617070317268372, -3.414808511734009, 2.3763201236724854, -0.3646969795227051, 2.6365368366241455, 1.7529125213623047], "alpha2": 0.05840178206562996, "beta2": 6.654246807098389, "weight3": [[3.3883819580078125, 4.51893949508667, -3.2479684352874756, -3.0786454677581787, 0.024365637451410294, 2.4250476360321045], [-3.092125654220581, -5.22934103012085, 3.3944246768951416, 4.4324235916137695, -4.894370079040527, 0.32974350452423096], [1.0537934303283691, -4.705038547515869, -2.1178929805755615, 4.411031723022461, -3.074449062347412, 2.1924729347229004], [-4.25562047958374, 1.3110756874084473, 4.39461612701416, -2.511322498321533, -4.641818046569824, -3.926478624343872], [2.57651686668396, 4.4391703605651855, -2.6304328441619873, 3.9592974185943604, -4.29512882232666, 1.012836217880249], [-3.4166300296783447, 5.04923152923584, 2.1132423877716064, -1.355933666229248, 5.231799602508545, 2.87166166305542]], "bias3": [1.0398064851760864, -1.2896804809570312, 1.2072532176971436, -0.4019172489643097, 0.06824731826782227, 0.0018615173175930977]}, {"weight0": [[-1.1571400165557861, -0.03535475954413414, 2.389789581298828, -0.15810737013816833, 0.651714563369751, -1.936995267868042], [1.417077898979187, -0.9392758011817932, -1.793745994567871, -1.0431100130081177, -1.5396173000335693, -2.5522825717926025], [-1.1177353858947754, 0.7185397148132324, -1.979337453842163, 0.6560274958610535, 1.4909658432006836, -0.24412843585014343], [1.5307707786560059, 0.31162938475608826, -0.05784880742430687, 0.710096538066864, 0.536512017250061, -1.8993909358978271], [1.4143004417419434, 0.8931509256362915, 0.100588358938694, 0.009045001119375229, 0.2838551104068756, -0.7602627873420715], [0.06088768690824509, -1.7222286462783813, 0.695011556148529, -1.8348077535629272, 1.07534658908844, 0.27578723430633545]], "bias0": [0.6896885633468628, 0.4265460669994354, -0.0856277346611023, -1.1990853548049927, -1.0455433130264282, -0.8840559124946594], "alpha0": 2.1575231552124023, "beta0": 3.104860305786133, "weight1": [[-1.2524750232696533, 1.0532045364379883, -2.6492421627044678, 1.8016730546951294, 1.0198150873184204, 2.1310791969299316], [0.07986683398485184, -0.06865076720714569, 0.08840508759021759, -2.1365721225738525, 0.7944772243499756, 2.042893648147583], [1.5373648405075073, 0.036430660635232925, -1.2107136249542236, -0.05562262609601021, -0.1013079509139061, -3.6617085933685303], [0.6886860728263855, -1.8931211233139038, 2.0678436756134033, 1.2116516828536987, 0.13859951496124268, 1.732711672782898], [-0.6590170860290527, -1.57783842086792, 0.9308802485466003, 1.1217561960220337, 1.9145172834396362, -0.8627178072929382], [-2.6906654834747314, -0.5880875587463379, -2.209563732147217, 0.9948175549507141, 0.6801621913909912, -0.6345956921577454]], "bias1": [-1.7392489910125732, 1.5441770553588867, 0.41647395491600037, -0.9187999963760376, -1.0857923030853271, 0.3135964870452881], "alpha1": 3.2419235706329346, "beta1": 1.3984535932540894, "weight2": [[4.00531530380249, 0.19534525275230408, 0.39113879203796387, -0.21962980926036835, 4.002140045166016, 0.9419193267822266], [-2.9066431522369385, -1.6868181228637695, -0.0595233328640461, 3.697357654571533, 2.8500308990478516, -2.8947503566741943], [-0.944584846496582, -0.15575967729091644, 0.20001739263534546, 1.644963026046753, -1.3000928163528442, -0.20394666492938995], [3.484321355819702, -3.1955909729003906, -0.6968263387680054, 3.2029430866241455, 0.7369843125343323, 2.1527371406555176], [-2.2837295532226562, -1.1088320016860962, 0.20898929238319397, 3.0980374813079834, 3.640523910522461, -2.2663559913635254], [1.629372239112854, 0.9882103204727173, -3.4537487030029297, 2.528350353240967, -3.137840747833252, -3.3174350261688232]], "bias2": [1.1835614442825317, 1.1699432134628296, 2.919172763824463, -0.9332708716392517, 1.2488212585449219, -0.4219464361667633], "alpha2": 0.029600266367197037, "beta2": 4.79995584487915, "weight3": [[-4.172536849975586, 4.240387916564941, -0.4864416718482971, -4.645007610321045, 2.915800094604492, 3.604363203048706], [-3.3571977615356445, -3.810476064682007, 2.269716262817383, -3.419271945953369, -4.027712345123291, 3.927238702774048], [1.4341586828231812, 3.1984119415283203, -3.14255690574646, 2.5859436988830566, 4.647543430328369, -3.2372968196868896], [0.2511710524559021, -3.581265926361084, 2.603419303894043, -5.0126776695251465, 1.8432915210723877, -4.721408843994141], [-2.964238405227661, 0.4532107412815094, -0.5896814465522766, 2.558351993560791, 0.9149237275123596, 4.8481950759887695], [2.0721750259399414, -3.537888765335083, -1.4605631828308105, 3.9842092990875244, -3.1306419372558594, 3.7896718978881836]], "bias3": [0.2351996898651123, 1.0413026809692383, 1.9115104675292969, -0.18887591361999512, -0.6223785877227783, 0.4783501923084259]}, {"weight0": [[-1.959797739982605, -1.6964237689971924, 2.0344836711883545, -2.914095878601074, 0.6553305983543396, -0.1975731998682022], [-0.7789319157600403, 4.411668300628662, 3.605419158935547, -2.1149256229400635, 1.2452510595321655, -2.5545623302459717], [0.221215158700943, -0.7675525546073914, 0.813525915145874, 3.0490610599517822, 1.239709734916687, -4.613185882568359], [1.4706741571426392, -1.7474431991577148, 2.112773895263672, -3.8219611644744873, -1.8474061489105225, -2.878859043121338], [1.064502477645874, -1.513831377029419, 0.21034809947013855, -3.3045156002044678, 0.6213173270225525, 2.380429267883301], [1.2049164772033691, 3.0672810077667236, 2.100802183151245, 1.1435986757278442, -1.2644014358520508, 1.7530760765075684]], "bias0": [1.3618049621582031, -0.3841356933116913, -1.0018563270568848, 0.6035143136978149, -1.3319017887115479, 0.08763566613197327], "alpha0": 3.6634726524353027, "beta0": 3.1481263637542725, "weight1": [[-3.44211483001709, 0.32492518424987793, -0.397148072719574, -3.374157428741455, 3.41416597366333, 2.3522326946258545], [2.4686172008514404, 0.998015820980072, -1.763816237449646, 0.00983455777168274, -2.0805304050445557, 1.7748026847839355], [-2.921203374862671, 1.897739052772522, 2.4627437591552734, 1.0161097049713135, -1.4793509244918823, 2.533062696456909], [1.7710316181182861, 2.4241156578063965, 1.9637885093688965, -2.486849546432495, 1.5634381771087646, -1.6016156673431396], [-0.19489754736423492, 0.9697680473327637, -2.099548578262329, 2.2730672359466553, 1.1036710739135742, -0.47619208693504333], [-0.4196033775806427, -0.2072494626045227, 1.880284070968628, 3.570584774017334, 3.1622557640075684, 0.9567804336547852]], "bias1": [-1.0981290340423584, 1.9018303155899048, -0.055375244468450546, -0.5910083055496216, -0.6479626297950745, -0.5773537158966064], "alpha1": 5.339259147644043, "beta1": 7.064507961273193, "weight2": [[3.367828845977783, -1.2598127126693726, -1.0709675550460815, 3.051142930984497, -0.9779207706451416, 2.636843681335449], [2.7786707878112793, -2.6569008827209473, 2.081270694732666, -3.1095054149627686, 1.735377550125122, 3.110551357269287], [2.289954900741577, -1.773557424545288, 2.869610548019409, 2.56681227684021, -0.9495641589164734, -0.47688862681388855], [1.7956788539886475, -1.5444631576538086, 2.1735594272613525, 1.8929171562194824, -0.8140078186988831, 3.5556609630584717], [3.607781410217285, 0.6984122395515442, 3.467526912689209, -0.10922402143478394, -1.825212836265564, -0.8662487864494324], [1.3551210165023804, -0.14977267384529114, 1.5600305795669556, -1.1940830945968628, -1.360209345817566, 3.468708038330078]], "bias2": [-0.07855922728776932, -0.05713098496198654, -3.1072793006896973, 2.286153793334961, 2.020347833633423, -3.0739331245422363], "alpha2": 0.0010107510024681687, "beta2": 8.149406433105469, "weight3": [[-4.016793251037598, 4.671022891998291, 4.753085136413574, 3.386516809463501, -0.8249258995056152, -3.257244348526001], [-4.959765911102295, 3.2702572345733643, 3.668867349624634, -2.815634250640869, -5.104551792144775, 4.7415313720703125], [-4.080136775970459, 5.404454708099365, -5.324318885803223, -3.739797830581665, 4.652050495147705, 2.1667888164520264], [-3.2304561138153076, -2.29512357711792, 4.581085681915283, -4.400789737701416, 5.2093186378479, -3.2283456325531006], [5.472698211669922, 5.403009414672852, 2.2461585998535156, -4.639644622802734, -3.8743457794189453, -2.753277063369751], [0.19305819272994995, -5.037176609039307, 4.1260986328125, -4.381436347961426, 3.620478391647339, 3.4047629833221436]], "bias3": [-0.9638948440551758, 0.11138332635164261, -0.2843712568283081, 1.1622717380523682, -0.23018603026866913, -1.2446013689041138]}, {"weight0": [[-1.959797739982605, 1.6964237689971924, -2.0344836711883545, 2.914095878601074, 0.6553305983543396, -0.1975731998682022], [-0.7789319157600403, -4.411668300628662, -3.605419158935547, 2.1149256229400635, 1.2452510595321655, -2.5545623302459717], [0.221215158700943, 0.7675525546073914, -0.813525915145874, -3.0490610599517822, 1.239709734916687, -4.613185882568359], [1.4706741571426392, 1.7474431991577148, -2.112773895263672, 3.8219611644744873, -1.8474061489105225, -2.878859043121338], [1.064502477645874, 1.513831377029419, -0.21034809947013855, 3.3045156002044678, 0.6213173270225525, 2.380429267883301], [1.2049164772033691, -3.0672810077667236, -2.100802183151245, -1.1435986757278442, -1.2644014358520508, 1.7530760765075684]], "bias0": [1.3618049621582031, -0.3841356933116913, -1.0018563270568848, 0.6035143136978149, -1.3319017887115479, 0.08763566613197327], "alpha0": 3.6634726524353027, "beta0": 3.1481263637542725, "weight1": [[-3.44211483001709, 0.32492518424987793, -0.397148072719574, -3.374157428741455, 3.41416597366333, 2.3522326946258545], [2.4686172008514404, 0.998015820980072, -1.763816237449646, 0.00983455777168274, -2.0805304050445557, 1.7748026847839355], [-2.921203374862671, 1.897739052772522, 2.4627437591552734, 1.0161097049713135, -1.4793509244918823, 2.533062696456909], [1.7710316181182861, 2.4241156578063965, 1.9637885093688965, -2.486849546432495, 1.5634381771087646, -1.6016156673431396], [-0.19489754736423492, 0.9697680473327637, -2.099548578262329, 2.2730672359466553, 1.1036710739135742, -0.47619208693504333], [-0.4196033775806427, -0.2072494626045227, 1.880284070968628, 3.570584774017334, 3.1622557640075684, 0.9567804336547852]], "bias1": [-1.0981290340423584, 1.9018303155899048, -0.055375244468450546, -0.5910083055496216, -0.6479626297950745, -0.5773537158966064], "alpha1": 5.339259147644043, "beta1": 7.064507961273193, "weight2": [[3.367828845977783, -1.2598127126693726, -1.0709675550460815, 3.051142930984497, -0.9779207706451416, 2.636843681335449], [2.7786707878112793, -2.6569008827209473, 2.081270694732666, -3.1095054149627686, 1.735377550125122, 3.110551357269287], [2.289954900741577, -1.773557424545288, 2.869610548019409, 2.56681227684021, -0.9495641589164734, -0.47688862681388855], [1.7956788539886475, -1.5444631576538086, 2.1735594272613525, 1.8929171562194824, -0.8140078186988831, 3.5556609630584717], [3.607781410217285, 0.6984122395515442, 3.467526912689209, -0.10922402143478394, -1.825212836265564, -0.8662487864494324], [1.3551210165023804, -0.14977267384529114, 1.5600305795669556, -1.1940830945968628, -1.360209345817566, 3.468708038330078]], "bias2": [-0.07855922728776932, -0.05713098496198654, -3.1072793006896973, 2.286153793334961, 2.020347833633423, -3.0739331245422363], "alpha2": 0.0010107510024681687, "beta2": 8.149406433105469, "weight3": [[-4.016793251037598, 4.671022891998291, 4.753085136413574, 3.386516809463501, -0.8249258995056152, -3.257244348526001], [-4.959765911102295, 3.2702572345733643, 3.668867349624634, -2.815634250640869, -5.104551792144775, 4.7415313720703125], [-4.080136775970459, 5.404454708099365, -5.324318885803223, -3.739797830581665, 4.652050495147705, 2.1667888164520264], [-3.2304561138153076, -2.29512357711792, 4.581085681915283, -4.400789737701416, 5.2093186378479, -3.2283456325531006], [5.472698211669922, 5.403009414672852, 2.2461585998535156, -4.639644622802734, -3.8743457794189453, -2.753277063369751], [0.19305819272994995, -5.037176609039307, 4.1260986328125, -4.381436347961426, 3.620478391647339, 3.4047629833221436]], "bias3": [-0.9638948440551758, 0.11138332635164261, -0.2843712568283081, 1.1622717380523682, -0.23018603026866913, -1.2446013689041138]}, {"weight0": [[1.6018919944763184, 1.2296696901321411, 1.7161628007888794, 1.603344202041626, -0.5673989653587341, 0.30369922518730164], [0.9483703374862671, 2.0880513191223145, -0.21574817597866058, -0.7400653958320618, 0.4599400460720062, -0.25905537605285645], [-0.24670757353305817, -0.37821534276008606, 1.280739188194275, 0.02826923318207264, 1.543949007987976, -1.4919776916503906], [0.9716483950614929, -1.3508247137069702, -1.4177430868148804, 0.37787774205207825, 0.8618829250335693, -0.787839412689209], [-0.28029850125312805, 0.026878030970692635, 0.5281699895858765, 0.32058611512184143, 1.0895535945892334, 1.894843578338623], [-1.0993388891220093, 1.3326008319854736, 0.10784368962049484, 1.0776327848434448, 0.5444527864456177, -1.411651372909546]], "bias0": [-0.7457684278488159, -1.2475128173828125, -1.0031378269195557, -1.0849697589874268, -0.6344398260116577, 1.338425636291504], "alpha0": 0.23933492600917816, "beta0": 2.2134857177734375, "weight1": [[2.1588525772094727, 0.8330510854721069, -2.3747305870056152, 1.4052057266235352, -2.4981586933135986, -0.20841196179389954], [2.0918424129486084, -0.9081599116325378, 0.06865327060222626, 0.4483046531677246, 1.493040919303894, 1.2286827564239502], [-1.0552306175231934, -1.4296404123306274, 0.9358779788017273, -0.26962846517562866, -1.3206863403320312, 0.9238062500953674], [-0.30653077363967896, 0.2981817424297333, 0.27006763219833374, 1.362207293510437, 1.2464675903320312, -1.9383844137191772], [1.6572562456130981, 1.1193530559539795, 2.761709213256836, 0.7404195070266724, -0.6529535055160522, -2.000218152999878], [-0.48463863134384155, 1.3284286260604858, 1.3178435564041138, 1.8898403644561768, 1.0193946361541748, 0.6418138146400452]], "bias1": [0.1173408180475235, -0.2784261405467987, 2.283095598220825, 0.8422303199768066, -0.1336618959903717, -2.0008692741394043], "alpha1": 0.05860067531466484, "beta1": 2.1904196739196777, "weight2": [[-0.6360219717025757, -1.7086037397384644, -1.762838363647461, 2.456620216369629, 3.4633591175079346, 2.4668262004852295], [-3.8948025703430176, 0.8445724844932556, -1.0522419214248657, 0.048840198665857315, -1.3209257125854492, 3.000375509262085], [-0.4733133316040039, -2.005255937576294, 2.074862480163574, 2.6194825172424316, 2.266584873199463, -3.046980619430542], [2.3963067531585693, 1.3785784244537354, -0.6543290019035339, 0.16371485590934753, -0.21103990077972412, 0.580314576625824], [0.5413831472396851, 1.0977375507354736, 0.6898549199104309, -0.11664992570877075, -1.9423608779907227, -1.9644999504089355], [2.8604934215545654, 0.5503978133201599, -2.374289035797119, 0.6460747122764587, 2.2568929195404053, 1.1597378253936768]], "bias2": [-0.9250797033309937, 0.21289604902267456, 1.1091142892837524, -2.8111965656280518, 2.382427453994751, -1.715795636177063], "alpha2": 0.05043093487620354, "beta2": 8.13129997253418, "weight3": [[5.217132568359375, -4.007045269012451, 5.032388210296631, 2.5562632083892822, -2.2429258823394775, 3.200324296951294], [4.087040424346924, 4.51833438873291, -4.353252410888672, 3.117812156677246, -2.4090895652770996, 1.7731516361236572], [2.731555938720703, 4.022759437561035, -3.216500997543335, 2.0051403045654297, -2.6931135654449463, 3.9755733013153076], [-1.0065191984176636, 0.13120926916599274, 2.6795356273651123, -1.1559431552886963, 1.714240312576294, -4.0304155349731445], [4.9612555503845215, 2.0385243892669678, 4.385862827301025, -1.9748224020004272, -0.4324866831302643, -4.275251865386963], [-5.183392524719238, -0.16942615807056427, 2.1202781200408936, -0.46974772214889526, 0.15300200879573822, -1.7269443273544312]], "bias3": [-2.6707961559295654, -1.375160574913025, -1.453324317932129, -0.6072038412094116, 1.0563620328903198, 1.3721039295196533]}, {"weight0": [[-0.931507408618927, -0.9440737962722778, 1.7516155242919922, -0.33980926871299744, 0.3503676652908325, -0.8223521709442139], [1.5181047916412354, -0.2622094452381134, 1.2121704816818237, -1.190361738204956, -0.45258939266204834, 1.4674900770187378], [-0.10727448016405106, 0.8381409645080566, 1.6142714023590088, 0.9801977872848511, -0.5143822431564331, 1.632615327835083], [1.1323869228363037, -0.4553707540035248, 1.6925705671310425, 0.645793616771698, -1.6209558248519897, -0.4424956440925598], [-0.4776795506477356, -0.6168748736381531, -0.43234238028526306, 1.3563544750213623, 0.9918374419212341, -0.11391577124595642], [0.38805270195007324, 1.1786640882492065, 0.17150475084781647, 0.2683272361755371, 1.3085527420043945, -1.616960048675537]], "bias0": [1.0853697061538696, 0.13009950518608093, 0.800439178943634, 0.3467971086502075, -0.5661675333976746, -0.16174446046352386], "alpha0": 0.19234822690486908, "beta0": 2.131146192550659, "weight1": [[0.7262620329856873, 0.9451403021812439, 0.43994784355163574, 0.25498735904693604, -1.50482976436615, -1.0934118032455444], [0.4707839787006378, 1.223784327507019, 0.09224540740251541, 0.8194540739059448, 1.4746472835540771, -0.03639410436153412], [-0.6125561594963074, 0.6278005242347717, 1.5025643110275269, -1.2559996843338013, 0.3078703284263611, 0.12818677723407745], [0.5331429243087769, 0.3511587381362915, -0.23636099696159363, -1.1750037670135498, 0.2556000351905823, 1.0089328289031982], [-0.04898843169212341, 1.2859891653060913, -1.4444478750228882, -1.0259995460510254, 0.20449602603912354, -1.4829497337341309], [-1.8479673862457275, 0.5741195678710938, -1.1319369077682495, 1.528106927871704, 0.7749148607254028, -0.07338984310626984]], "bias1": [1.4209377765655518, -2.0640647411346436, -0.40599653124809265, -0.6650704741477966, 1.2317322492599487, 0.474196195602417], "alpha1": 0.20923273265361786, "beta1": 1.891208529472351, "weight2": [[1.342560052871704, -2.7110989093780518, -0.7141525149345398, -1.2203495502471924, 0.5147498250007629, -1.8015904426574707], [1.3940744400024414, -1.861436128616333, -0.6517606377601624, -0.8898511528968811, -2.3794445991516113, 2.0247836112976074], [-0.5461439490318298, -0.7471990585327148, 1.3611276149749756, -0.07074327021837234, -0.9126991629600525, -3.791168689727783], [1.4963959455490112, -0.4490252435207367, -2.297255754470825, 1.073183536529541, 1.7405074834823608, 0.06863938271999359], [-0.6229099035263062, -0.003920926246792078, 2.5293052196502686, 0.5294158458709717, -1.2635829448699951, -0.5357664823532104], [1.4682459831237793, -1.757426381111145, 0.46012988686561584, -0.9555802941322327, -3.7080488204956055, 2.0697827339172363]], "bias2": [2.2422521114349365, 0.7502787709236145, 1.0736161470413208, -1.9455921649932861, -1.1698800325393677, -0.03978855162858963], "alpha2": 5.058762550354004, "beta2": 5.293394565582275, "weight3": [[2.607675313949585, 4.487783432006836, -3.217115640640259, 2.2029027938842773, -2.6552600860595703, 2.552833080291748], [2.6538150310516357, 2.805283308029175, 0.34298139810562134, -3.4655954837799072, -1.8908838033676147, 1.78984534740448], [0.7995433211326599, -0.005044674035161734, 0.7497882843017578, -3.522101640701294, -0.3323918282985687, 2.1427628993988037], [-3.434269428253174, 2.5997941493988037, -2.8669304847717285, 2.049738645553589, 2.6303293704986572, 3.861142158508301], [-1.0394668579101562, -2.6031854152679443, -0.860085129737854, 3.555826425552368, 1.2287801504135132, -2.0676214694976807], [-3.3323540687561035, 0.9072199463844299, -1.0010731220245361, -0.21469108760356903, 2.717838764190674, 2.426769256591797]], "bias3": [1.3189231157302856, 2.1149017810821533, 0.6011454463005066, 1.453579068183899, -1.34425950050354, -0.34834954142570496]}, {"weight0": [[-0.931507408618927, 0.9440737962722778, -1.7516155242919922, 0.33980926871299744, 0.3503676652908325, -0.8223521709442139], [1.5181047916412354, 0.2622094452381134, -1.2121704816818237, 1.190361738204956, -0.45258939266204834, 1.4674900770187378], [-0.10727448016405106, -0.8381409645080566, -1.6142714023590088, -0.9801977872848511, -0.5143822431564331, 1.632615327835083], [1.1323869228363037, 0.4553707540035248, -1.6925705671310425, -0.645793616771698, -1.6209558248519897, -0.4424956440925598], [-0.4776795506477356, 0.6168748736381531, 0.43234238028526306, -1.3563544750213623, 0.9918374419212341, -0.11391577124595642], [0.38805270195007324, -1.1786640882492065, -0.17150475084781647, -0.2683272361755371, 1.3085527420043945, -1.616960048675537]], "bias0": [1.0853697061538696, 0.13009950518608093, 0.800439178943634, 0.3467971086502075, -0.5661675333976746, -0.16174446046352386], "alpha0": 0.19234822690486908, "beta0": 2.131146192550659, "weight1": [[0.7262620329856873, 0.9451403021812439, 0.43994784355163574, 0.25498735904693604, -1.50482976436615, -1.0934118032455444], [0.4707839787006378, 1.223784327507019, 0.09224540740251541, 0.8194540739059448, 1.4746472835540771, -0.03639410436153412], [-0.6125561594963074, 0.6278005242347717, 1.5025643110275269, -1.2559996843338013, 0.3078703284263611, 0.12818677723407745], [0.5331429243087769, 0.3511587381362915, -0.23636099696159363, -1.1750037670135498, 0.2556000351905823, 1.0089328289031982], [-0.04898843169212341, 1.2859891653060913, -1.4444478750228882, -1.0259995460510254, 0.20449602603912354, -1.4829497337341309], [-1.8479673862457275, 0.5741195678710938, -1.1319369077682495, 1.528106927871704, 0.7749148607254028, -0.07338984310626984]], "bias1": [1.4209377765655518, -2.0640647411346436, -0.40599653124809265, -0.6650704741477966, 1.2317322492599487, 0.474196195602417], "alpha1": 0.20923273265361786, "beta1": 1.891208529472351, "weight2": [[1.342560052871704, -2.7110989093780518, -0.7141525149345398, -1.2203495502471924, 0.5147498250007629, -1.8015904426574707], [1.3940744400024414, -1.861436128616333, -0.6517606377601624, -0.8898511528968811, -2.3794445991516113, 2.0247836112976074], [-0.5461439490318298, -0.7471990585327148, 1.3611276149749756, -0.07074327021837234, -0.9126991629600525, -3.791168689727783], [1.4963959455490112, -0.4490252435207367, -2.297255754470825, 1.073183536529541, 1.7405074834823608, 0.06863938271999359], [-0.6229099035263062, -0.003920926246792078, 2.5293052196502686, 0.5294158458709717, -1.2635829448699951, -0.5357664823532104], [1.4682459831237793, -1.757426381111145, 0.46012988686561584, -0.9555802941322327, -3.7080488204956055, 2.0697827339172363]], "bias2": [2.2422521114349365, 0.7502787709236145, 1.0736161470413208, -1.9455921649932861, -1.1698800325393677, -0.03978855162858963], "alpha2": 5.058762550354004, "beta2": 5.293394565582275, "weight3": [[2.607675313949585, 4.487783432006836, -3.217115640640259, 2.2029027938842773, -2.6552600860595703, 2.552833080291748], [2.6538150310516357, 2.805283308029175, 0.34298139810562134, -3.4655954837799072, -1.8908838033676147, 1.78984534740448], [0.7995433211326599, -0.005044674035161734, 0.7497882843017578, -3.522101640701294, -0.3323918282985687, 2.1427628993988037], [-3.434269428253174, 2.5997941493988037, -2.8669304847717285, 2.049738645553589, 2.6303293704986572, 3.861142158508301], [-1.0394668579101562, -2.6031854152679443, -0.860085129737854, 3.555826425552368, 1.2287801504135132, -2.0676214694976807], [-3.3323540687561035, 0.9072199463844299, -1.0010731220245361, -0.21469108760356903, 2.717838764190674, 2.426769256591797]], "bias3": [1.3189231157302856, 2.1149017810821533, 0.6011454463005066, 1.453579068183899, -1.34425950050354, -0.34834954142570496]}, {"weight0": [[0.974068820476532, 1.0711479187011719, -1.29221510887146, 0.7727317810058594, -0.2952002286911011, -1.1538145542144775], [0.5938260555267334, -0.4729812741279602, -1.1913856267929077, -1.0499569177627563, 0.5532418489456177, 0.8438416719436646], [0.5337934494018555, 0.8510380387306213, 0.35464608669281006, -0.280828058719635, 0.8370614647865295, 1.651534080505371], [-1.1315144300460815, 0.11366648226976395, -0.4758983552455902, 0.1865815967321396, 1.0843979120254517, -1.2043229341506958], [1.4387315511703491, 0.5313585996627808, 1.547865390777588, -1.0326576232910156, 0.22641205787658691, -0.602885365486145], [0.14061012864112854, -1.72432279586792, 0.14019054174423218, 0.7370172739028931, 0.9834047555923462, -0.1214664950966835]], "bias0": [-0.37522584199905396, -0.9948341846466064, -0.4568102955818176, 0.15692314505577087, -0.9082179069519043, -0.9074669480323792], "alpha0": 0.27511534094810486, "beta0": 2.664600372314453, "weight1": [[0.4799809157848358, 0.9456325173377991, 0.22505968809127808, 1.0230227708816528, 1.4843460321426392, 1.488953948020935], [0.8320854902267456, -1.246597409248352, 1.2595340013504028, -1.088826298713684, 0.8766417503356934, 1.7056245803833008], [-0.6259695291519165, 2.345720052719116, -1.8063849210739136, -1.2935856580734253, 1.9661942720413208, 1.0849288702011108], [0.2098037302494049, -1.2449522018432617, 0.28530222177505493, 0.30200132727622986, -0.24891111254692078, 0.2676084339618683], [1.7494945526123047, 1.5722639560699463, 0.19849996268749237, -2.086597204208374, -0.28911498188972473, 0.8884285092353821], [-0.5901566743850708, 0.09585288166999817, 1.2863831520080566, 0.8014328479766846, -0.5329591035842896, 0.7760298252105713]], "bias1": [-2.050940752029419, -1.4172958135604858, 0.2517344653606415, 1.8032605648040771, -0.00141505419742316, -0.24367175996303558], "alpha1": 0.04978402704000473, "beta1": 2.3741326332092285, "weight2": [[1.7531617879867554, -0.183313250541687, 1.1106765270233154, -0.6589863300323486, 1.4030598402023315, -0.5592889189720154], [-2.4813950061798096, -2.011002779006958, 1.7516411542892456, 0.6002568602561951, -0.5837194323539734, 0.10573576390743256], [2.2487499713897705, -1.402957797050476, -2.5296289920806885, 1.0383319854736328, -0.7397388815879822, 1.1534467935562134], [0.573789119720459, 0.6326109170913696, -1.2565786838531494, 0.5711213946342468, 0.8031893372535706, -0.8208230137825012], [1.0174130201339722, 0.31452062726020813, -0.43106716871261597, -0.9331335425376892, 1.3061163425445557, -1.5006680488586426], [-2.28367280960083, 0.7507525086402893, -2.7155182361602783, 1.755990982055664, -0.19868426024913788, -2.4806923866271973]], "bias2": [-1.973793864250183, 0.9245284199714661, -1.1813435554504395, -1.3250558376312256, 0.3984968364238739, 1.5748103857040405], "alpha2": 4.888350486755371, "beta2": 6.233124256134033, "weight3": [[1.429447054862976, 2.176879644393921, 0.8013617992401123, 0.12882357835769653, -1.4086774587631226, -3.8607730865478516], [-0.4256581664085388, -2.3850040435791016, -1.3359788656234741, 0.36045727133750916, 1.697538137435913, 1.684983253479004], [1.9107164144515991, -3.365699291229248, -2.2033867835998535, 3.1466963291168213, 0.5237767100334167, 1.336897611618042], [1.8771052360534668, -2.9629135131835938, 2.146207809448242, 0.6852235198020935, 0.9295141696929932, -3.2065927982330322], [-2.2592697143554688, 2.989799737930298, -1.7571388483047485, 0.45875540375709534, -0.5219231247901917, 2.099820375442505], [-1.239065408706665, -2.6374247074127197, 2.2411773204803467, -0.8854460716247559, -0.04724658280611038, 3.099086046218872]], "bias3": [-0.5930141806602478, -0.6237696409225464, 1.2999942302703857, -0.6177006363868713, 1.0057862997055054, -2.1314446926116943]}, {"weight0": [[0.7611321806907654, 1.383636713027954, 0.050542138516902924, 0.10360971838235855, 1.4358882904052734, 0.8345025777816772], [0.7251980900764465, -1.1535462141036987, 2.4238932132720947, -0.907362163066864, 0.25098344683647156, -0.07495072484016418], [-1.9601410627365112, 0.10050085186958313, 1.9266314506530762, -0.23440900444984436, 1.6549543142318726, -0.5898468494415283], [-0.01893756538629532, -1.136125922203064, 0.32052910327911377, 1.3142796754837036, 0.1327665001153946, 1.4355344772338867], [0.07516705989837646, 0.7014199495315552, 1.149047613143921, 0.12851962447166443, -0.407255619764328, 1.426452398300171], [-0.28243234753608704, -2.1943397521972656, -0.898941695690155, -1.6670645475387573, 0.34876883029937744, 0.39002466201782227]], "bias0": [0.6831316947937012, -0.41553109884262085, 1.2497411966323853, -0.6264235973358154, 2.0426886081695557, 0.48551318049430847], "alpha0": 0.26697981357574463, "beta0": 1.96182382106781, "weight1": [[1.8581565618515015, 0.7953558564186096, -0.3291492164134979, 0.21675226092338562, -0.4736105799674988, -1.218705415725708], [0.7382763624191284, 1.0258492231369019, -0.2646079659461975, 1.544324517250061, -0.026625625789165497, 1.471435308456421], [0.9736719131469727, 1.6231000423431396, -2.033482313156128, 1.289691686630249, -2.0847983360290527, 0.8027020692825317], [-0.5740275382995605, 0.9550755023956299, -0.9373289942741394, -1.9370285272598267, 2.2662181854248047, -0.06340193748474121], [-1.1596564054489136, 1.6338452100753784, 0.8604276180267334, 0.14585527777671814, -0.9518975615501404, 2.5762360095977783], [-0.2506179213523865, 1.4997093677520752, -1.0564056634902954, 2.152195930480957, -1.1444261074066162, -1.5109943151474]], "bias1": [-0.4623869061470032, -0.3433631658554077, 0.34796297550201416, 2.1713852882385254, -0.9173741340637207, 0.18566185235977173], "alpha1": 0.19297334551811218, "beta1": 1.543192982673645, "weight2": [[0.76101154088974, 0.7512397170066833, -0.8242900967597961, -1.248134970664978, -0.7111138105392456, -0.9394566416740417], [2.739335298538208, -0.5517787337303162, 4.217336177825928, -0.1656578630208969, 2.1944568157196045, 3.9913036823272705], [1.1890090703964233, 0.46751755475997925, -2.063176155090332, -1.6484934091567993, -2.5920424461364746, 3.5043978691101074], [1.1514612436294556, 1.012211799621582, -0.7557979822158813, -0.6431332230567932, -0.6508689522743225, 0.6459009051322937], [2.092745542526245, 1.7376294136047363, -0.8179330825805664, -3.1370177268981934, 0.12529796361923218, -0.9475204944610596], [1.690541386604309, 0.1234937310218811, -0.9566226601600647, -1.3057680130004883, 0.9230299592018127, 0.3667137920856476]], "bias2": [0.45320817828178406, -3.125535726547241, 2.4813787937164307, -1.2098101377487183, -3.060513496398926, 1.1742161512374878], "alpha2": 0.0475255511701107, "beta2": 7.7265777587890625, "weight3": [[-3.280073404312134, 4.794279098510742, 0.37695494294166565, 1.888327717781067, -5.006880283355713, -1.1575710773468018], [0.8389230966567993, 4.566691875457764, -4.971099376678467, -0.49945947527885437, 4.158941268920898, 1.5893877744674683], [0.6114159226417542, -5.460286617279053, 3.0309698581695557, 0.33252212405204773, 3.7507266998291016, -1.2480205297470093], [2.5121865272521973, -4.848026752471924, 5.108912467956543, 0.02572306990623474, 1.9207757711410522, 0.4896906912326813], [-0.24267564713954926, 4.555785655975342, 4.357694625854492, -1.0220105648040771, -1.4866161346435547, 0.6888493895530701], [-1.913030982017517, 4.084083557128906, 2.882084846496582, -0.5742539167404175, 5.0591559410095215, 2.2812790870666504]], "bias3": [-2.1223323345184326, -1.9508030414581299, 0.8579815626144409, -1.8661527633666992, 0.7069596648216248, -0.7853987216949463]}, {"weight0": [[0.7611321806907654, -1.383636713027954, -0.050542138516902924, -0.10360971838235855, 1.4358882904052734, 0.8345025777816772], [0.7251980900764465, 1.1535462141036987, -2.4238932132720947, 0.907362163066864, 0.25098344683647156, -0.07495072484016418], [-1.9601410627365112, -0.10050085186958313, -1.9266314506530762, 0.23440900444984436, 1.6549543142318726, -0.5898468494415283], [-0.01893756538629532, 1.136125922203064, -0.32052910327911377, -1.3142796754837036, 0.1327665001153946, 1.4355344772338867], [0.07516705989837646, -0.7014199495315552, -1.149047613143921, -0.12851962447166443, -0.407255619764328, 1.426452398300171], [-0.28243234753608704, 2.1943397521972656, 0.898941695690155, 1.6670645475387573, 0.34876883029937744, 0.39002466201782227]], "bias0": [0.6831316947937012, -0.41553109884262085, 1.2497411966323853, -0.6264235973358154, 2.0426886081695557, 0.48551318049430847], "alpha0": 0.26697981357574463, "beta0": 1.96182382106781, "weight1": [[1.8581565618515015, 0.7953558564186096, -0.3291492164134979, 0.21675226092338562, -0.4736105799674988, -1.218705415725708], [0.7382763624191284, 1.0258492231369019, -0.2646079659461975, 1.544324517250061, -0.026625625789165497, 1.471435308456421], [0.9736719131469727, 1.6231000423431396, -2.033482313156128, 1.289691686630249, -2.0847983360290527, 0.8027020692825317], [-0.5740275382995605, 0.9550755023956299, -0.9373289942741394, -1.9370285272598267, 2.2662181854248047, -0.06340193748474121], [-1.1596564054489136, 1.6338452100753784, 0.8604276180267334, 0.14585527777671814, -0.9518975615501404, 2.5762360095977783], [-0.2506179213523865, 1.4997093677520752, -1.0564056634902954, 2.152195930480957, -1.1444261074066162, -1.5109943151474]], "bias1": [-0.4623869061470032, -0.3433631658554077, 0.34796297550201416, 2.1713852882385254, -0.9173741340637207, 0.18566185235977173], "alpha1": 0.19297334551811218, "beta1": 1.543192982673645, "weight2": [[0.76101154088974, 0.7512397170066833, -0.8242900967597961, -1.248134970664978, -0.7111138105392456, -0.9394566416740417], [2.739335298538208, -0.5517787337303162, 4.217336177825928, -0.1656578630208969, 2.1944568157196045, 3.9913036823272705], [1.1890090703964233, 0.46751755475997925, -2.063176155090332, -1.6484934091567993, -2.5920424461364746, 3.5043978691101074], [1.1514612436294556, 1.012211799621582, -0.7557979822158813, -0.6431332230567932, -0.6508689522743225, 0.6459009051322937], [2.092745542526245, 1.7376294136047363, -0.8179330825805664, -3.1370177268981934, 0.12529796361923218, -0.9475204944610596], [1.690541386604309, 0.1234937310218811, -0.9566226601600647, -1.3057680130004883, 0.9230299592018127, 0.3667137920856476]], "bias2": [0.45320817828178406, -3.125535726547241, 2.4813787937164307, -1.2098101377487183, -3.060513496398926, 1.1742161512374878], "alpha2": 0.0475255511701107, "beta2": 7.7265777587890625, "weight3": [[-3.280073404312134, 4.794279098510742, 0.37695494294166565, 1.888327717781067, -5.006880283355713, -1.1575710773468018], [0.8389230966567993, 4.566691875457764, -4.971099376678467, -0.49945947527885437, 4.158941268920898, 1.5893877744674683], [0.6114159226417542, -5.460286617279053, 3.0309698581695557, 0.33252212405204773, 3.7507266998291016, -1.2480205297470093], [2.5121865272521973, -4.848026752471924, 5.108912467956543, 0.02572306990623474, 1.9207757711410522, 0.4896906912326813], [-0.24267564713954926, 4.555785655975342, 4.357694625854492, -1.0220105648040771, -1.4866161346435547, 0.6888493895530701], [-1.913030982017517, 4.084083557128906, 2.882084846496582, -0.5742539167404175, 5.0591559410095215, 2.2812790870666504]], "bias3": [-2.1223323345184326, -1.9508030414581299, 0.8579815626144409, -1.8661527633666992, 0.7069596648216248, -0.7853987216949463]}, {"weight0": [[1.0500913858413696, 0.6774685978889465, 1.8539046049118042, -0.26044368743896484, -0.5542696714401245, -0.4622285068035126], [0.34803828597068787, -1.2617428302764893, 0.8946043252944946, 1.965510368347168, -0.13147979974746704, -0.9868096113204956], [0.31046509742736816, -0.13845083117485046, 0.7770323753356934, -0.7233586311340332, 1.9079411029815674, -1.6024770736694336], [0.8243973851203918, -1.0125895738601685, -1.5810004472732544, -1.058570384979248, 0.4702375829219818, 0.7887039184570312], [0.4208697974681854, -0.29854556918144226, 0.5130402445793152, 1.2076144218444824, 0.44037824869155884, 1.8150153160095215], [1.3195204734802246, -0.07888814061880112, -1.8423235416412354, 0.947393000125885, 0.588320791721344, -0.6814798712730408]], "bias0": [-0.2543874979019165, 1.7389169931411743, -1.9990302324295044, -0.9464216232299805, -0.7250025868415833, -1.2685825824737549], "alpha0": 0.3762586712837219, "beta0": 1.5005074739456177, "weight1": [[1.5697022676467896, -0.07008825987577438, 0.8051910400390625, 1.1128897666931152, 1.0618209838867188, 1.971413493156433], [-0.9955889582633972, 1.624769687652588, 0.7543226480484009, -0.21443861722946167, 0.10729379206895828, 0.6516513824462891], [-1.1611430644989014, 0.9810245633125305, 0.8156382441520691, 0.15776246786117554, 1.959214448928833, 0.6002794504165649], [-1.6077111959457397, 1.7581093311309814, -0.08213280886411667, -1.3593887090682983, 0.4489400088787079, -1.1945745944976807], [-0.9158739447593689, -0.7472110390663147, 2.4942626953125, -3.021549701690674, 3.0002920627593994, 3.547024965286255], [-0.3402952551841736, -0.7262972593307495, 2.3395495414733887, 2.6771533489227295, 2.1372625827789307, -1.2351372241973877]], "bias1": [-2.4893553256988525, -0.25283923745155334, 2.299639940261841, -0.1550636738538742, 0.7091199159622192, -0.11187909543514252], "alpha1": 0.18692819774150848, "beta1": 1.236713171005249, "weight2": [[0.25926390290260315, -0.2622765898704529, -1.1526296138763428, 1.3768625259399414, 2.4128732681274414, 3.6292221546173096], [0.2680254876613617, 1.96908438205719, -2.387544631958008, -0.28331154584884644, 0.5608542561531067, 3.430391311645508], [3.076744556427002, -2.3973476886749268, 0.6773180365562439, 0.7848505973815918, 0.8861168622970581, -1.627166986465454], [-4.221854209899902, -2.5015954971313477, 0.31601282954216003, 0.24444414675235748, 4.093082904815674, 1.8992905616760254], [2.8453540802001953, -1.3477145433425903, 1.0527355670928955, 0.28087759017944336, -1.709826111793518, 1.0374261140823364], [-4.028030872344971, 0.35944077372550964, 1.876913070678711, -1.9100980758666992, 0.10145377367734909, 0.18481206893920898]], "bias2": [-1.1934738159179688, 2.755018949508667, 2.0260753631591797, 0.7133005857467651, 2.73799729347229, 0.39761701226234436], "alpha2": 0.042050883173942566, "beta2": 1.64326012134552, "weight3": [[1.8508714437484741, 0.9001741409301758, 1.8358334302902222, -4.952093124389648, 2.721193790435791, -3.829996347427368], [-3.903931140899658, -1.2348178625106812, -2.817047595977783, -2.9648327827453613, 1.0156171321868896, 3.376891613006592], [2.68933367729187, 5.12326717376709, -4.789267063140869, -2.212690591812134, -2.645258665084839, 3.545093059539795], [-2.737182855606079, -1.6043622493743896, -0.33685216307640076, 4.296642303466797, -2.0393009185791016, 2.8842830657958984], [3.85190749168396, 4.757674694061279, -1.8264344930648804, -2.7491390705108643, -0.1748926043510437, -1.5879484415054321], [3.9498987197875977, 3.3403995037078857, 2.3060226440429688, 3.5301616191864014, -1.6784931421279907, -2.499824047088623]], "bias3": [0.6514927744865417, -1.5850211381912231, -1.07984459400177, 0.5677300095558167, 1.0039310455322266, -0.8152357935905457]}, {"weight0": [[1.0500913858413696, -0.6774685978889465, -1.8539046049118042, 0.26044368743896484, -0.5542696714401245, -0.4622285068035126], [0.34803828597068787, 1.2617428302764893, -0.8946043252944946, -1.965510368347168, -0.13147979974746704, -0.9868096113204956], [0.31046509742736816, 0.13845083117485046, -0.7770323753356934, 0.7233586311340332, 1.9079411029815674, -1.6024770736694336], [0.8243973851203918, 1.0125895738601685, 1.5810004472732544, 1.058570384979248, 0.4702375829219818, 0.7887039184570312], [0.4208697974681854, 0.29854556918144226, -0.5130402445793152, -1.2076144218444824, 0.44037824869155884, 1.8150153160095215], [1.3195204734802246, 0.07888814061880112, 1.8423235416412354, -0.947393000125885, 0.588320791721344, -0.6814798712730408]], "bias0": [-0.2543874979019165, 1.7389169931411743, -1.9990302324295044, -0.9464216232299805, -0.7250025868415833, -1.2685825824737549], "alpha0": 0.3762586712837219, "beta0": 1.5005074739456177, "weight1": [[1.5697022676467896, -0.07008825987577438, 0.8051910400390625, 1.1128897666931152, 1.0618209838867188, 1.971413493156433], [-0.9955889582633972, 1.624769687652588, 0.7543226480484009, -0.21443861722946167, 0.10729379206895828, 0.6516513824462891], [-1.1611430644989014, 0.9810245633125305, 0.8156382441520691, 0.15776246786117554, 1.959214448928833, 0.6002794504165649], [-1.6077111959457397, 1.7581093311309814, -0.08213280886411667, -1.3593887090682983, 0.4489400088787079, -1.1945745944976807], [-0.9158739447593689, -0.7472110390663147, 2.4942626953125, -3.021549701690674, 3.0002920627593994, 3.547024965286255], [-0.3402952551841736, -0.7262972593307495, 2.3395495414733887, 2.6771533489227295, 2.1372625827789307, -1.2351372241973877]], "bias1": [-2.4893553256988525, -0.25283923745155334, 2.299639940261841, -0.1550636738538742, 0.7091199159622192, -0.11187909543514252], "alpha1": 0.18692819774150848, "beta1": 1.236713171005249, "weight2": [[0.25926390290260315, -0.2622765898704529, -1.1526296138763428, 1.3768625259399414, 2.4128732681274414, 3.6292221546173096], [0.2680254876613617, 1.96908438205719, -2.387544631958008, -0.28331154584884644, 0.5608542561531067, 3.430391311645508], [3.076744556427002, -2.3973476886749268, 0.6773180365562439, 0.7848505973815918, 0.8861168622970581, -1.627166986465454], [-4.221854209899902, -2.5015954971313477, 0.31601282954216003, 0.24444414675235748, 4.093082904815674, 1.8992905616760254], [2.8453540802001953, -1.3477145433425903, 1.0527355670928955, 0.28087759017944336, -1.709826111793518, 1.0374261140823364], [-4.028030872344971, 0.35944077372550964, 1.876913070678711, -1.9100980758666992, 0.10145377367734909, 0.18481206893920898]], "bias2": [-1.1934738159179688, 2.755018949508667, 2.0260753631591797, 0.7133005857467651, 2.73799729347229, 0.39761701226234436], "alpha2": 0.042050883173942566, "beta2": 1.64326012134552, "weight3": [[1.8508714437484741, 0.9001741409301758, 1.8358334302902222, -4.952093124389648, 2.721193790435791, -3.829996347427368], [-3.903931140899658, -1.2348178625106812, -2.817047595977783, -2.9648327827453613, 1.0156171321868896, 3.376891613006592], [2.68933367729187, 5.12326717376709, -4.789267063140869, -2.212690591812134, -2.645258665084839, 3.545093059539795], [-2.737182855606079, -1.6043622493743896, -0.33685216307640076, 4.296642303466797, -2.0393009185791016, 2.8842830657958984], [3.85190749168396, 4.757674694061279, -1.8264344930648804, -2.7491390705108643, -0.1748926043510437, -1.5879484415054321], [3.9498987197875977, 3.3403995037078857, 2.3060226440429688, 3.5301616191864014, -1.6784931421279907, -2.499824047088623]], "bias3": [0.6514927744865417, -1.5850211381912231, -1.07984459400177, 0.5677300095558167, 1.0039310455322266, -0.8152357935905457]}, {"weight0": [[1.281082034111023, -1.0642858743667603, -0.6170167922973633, 1.0394810438156128, 0.6827308535575867, 0.13618586957454681], [0.10701873898506165, 1.403695821762085, 0.14888982474803925, -1.2202975749969482, 0.5582056641578674, -0.13849008083343506], [-0.734287679195404, 1.0258562564849854, 0.8798203468322754, 0.805732011795044, 1.1053519248962402, -1.8714717626571655], [-1.1988146305084229, -1.1210968494415283, -1.4426288604736328, -1.1928606033325195, 1.1077073812484741, 1.174272894859314], [-1.0923255681991577, 0.5200743675231934, 0.48725777864456177, 1.1596637964248657, 1.223880648612976, 2.5566978454589844], [0.5014155507087708, -1.3731473684310913, 0.8305331468582153, -0.10642921924591064, 0.46449121832847595, 1.9241880178451538]], "bias0": [-0.5686734914779663, -0.48535364866256714, 0.33777138590812683, 0.505532443523407, 0.20019514858722687, -0.49838966131210327], "alpha0": 0.38205042481422424, "beta0": 1.80373215675354, "weight1": [[0.76751309633255, 1.411059021949768, 0.741494357585907, -1.646819829940796, -0.890731155872345, 2.041161060333252], [1.3562498092651367, 0.9944216012954712, -1.9495950937271118, -0.5602547526359558, -0.7082011103630066, -0.5875470042228699], [0.10415472835302353, 0.48870649933815, 1.3961920738220215, -2.043958902359009, 1.4487881660461426, 1.1271049976348877], [1.6044076681137085, 2.531511068344116, -0.11231806129217148, -0.05045322701334953, 0.3025844693183899, 0.7774689793586731], [1.1497323513031006, 0.5701557993888855, 1.1921578645706177, 0.5339176058769226, -0.6550965309143066, 0.5407360196113586], [2.051278591156006, 1.3761502504348755, -0.6980454325675964, -0.9109089970588684, 0.30898216366767883, -1.5805093050003052]], "bias1": [-2.0568838119506836, 1.111954689025879, -1.183261752128601, -3.3778574466705322, -2.293735980987549, -0.9514467716217041], "alpha1": 0.25047969818115234, "beta1": 2.6182830333709717, "weight2": [[1.0820351839065552, 1.126434564590454, 1.20140540599823, 1.5830566883087158, -1.1605671644210815, 3.5189568996429443], [3.3551156520843506, 1.0360809564590454, -1.9132158756256104, 2.1257591247558594, 1.4543668031692505, -2.066033363342285], [2.8283424377441406, -0.767647922039032, -2.278618812561035, 3.118715524673462, 3.220935583114624, -2.929257392883301], [-2.4204418659210205, -3.4142305850982666, 0.5205267071723938, 4.712718486785889, 2.9636898040771484, 2.3654656410217285], [-0.6579403877258301, -2.1870710849761963, -0.006542910356074572, 2.8319780826568604, 1.1052452325820923, 2.0623667240142822], [2.769118309020996, 1.9335156679153442, 0.6338031888008118, 1.7381396293640137, -1.2071566581726074, 2.1085457801818848]], "bias2": [-3.6370866298675537, -0.9619141221046448, -0.33967605233192444, -2.6475939750671387, -0.6322404742240906, -3.7353434562683105], "alpha2": 0.05517174303531647, "beta2": 7.934386253356934, "weight3": [[4.821744918823242, -0.22808559238910675, -2.965397834777832, 4.98131799697876, -2.8889787197113037, 4.882578372955322], [4.938831329345703, -4.760300159454346, -3.057222366333008, -3.6930131912231445, -0.4254133105278015, 3.980332612991333], [3.3138978481292725, -2.34843111038208, -4.871843338012695, -4.689378261566162, 3.1932060718536377, 4.470325469970703], [4.422275066375732, 4.69428825378418, 2.4410977363586426, -4.3045878410339355, -2.4265050888061523, -1.6308318376541138], [-2.3942136764526367, 5.363612651824951, 4.938107967376709, -4.136104106903076, -3.347926139831543, 4.332870006561279], [2.491992950439453, 2.584087610244751, -4.250174045562744, -4.398198127746582, -0.8067957162857056, 3.8777098655700684]], "bias3": [-0.2196769118309021, 0.052904289215803146, -1.9370492696762085, -0.1764289289712906, 0.21700574457645416, 0.30603456497192383]}, {"weight0": [[1.281082034111023, 1.0642858743667603, 0.6170167922973633, -1.0394810438156128, 0.6827308535575867, 0.13618586957454681], [0.10701873898506165, -1.403695821762085, -0.14888982474803925, 1.2202975749969482, 0.5582056641578674, -0.13849008083343506], [-0.734287679195404, -1.0258562564849854, -0.8798203468322754, -0.805732011795044, 1.1053519248962402, -1.8714717626571655], [-1.1988146305084229, 1.1210968494415283, 1.4426288604736328, 1.1928606033325195, 1.1077073812484741, 1.174272894859314], [-1.0923255681991577, -0.5200743675231934, -0.48725777864456177, -1.1596637964248657, 1.223880648612976, 2.5566978454589844], [0.5014155507087708, 1.3731473684310913, -0.8305331468582153, 0.10642921924591064, 0.46449121832847595, 1.9241880178451538]], "bias0": [-0.5686734914779663, -0.48535364866256714, 0.33777138590812683, 0.505532443523407, 0.20019514858722687, -0.49838966131210327], "alpha0": 0.38205042481422424, "beta0": 1.80373215675354, "weight1": [[0.76751309633255, 1.411059021949768, 0.741494357585907, -1.646819829940796, -0.890731155872345, 2.041161060333252], [1.3562498092651367, 0.9944216012954712, -1.9495950937271118, -0.5602547526359558, -0.7082011103630066, -0.5875470042228699], [0.10415472835302353, 0.48870649933815, 1.3961920738220215, -2.043958902359009, 1.4487881660461426, 1.1271049976348877], [1.6044076681137085, 2.531511068344116, -0.11231806129217148, -0.05045322701334953, 0.3025844693183899, 0.7774689793586731], [1.1497323513031006, 0.5701557993888855, 1.1921578645706177, 0.5339176058769226, -0.6550965309143066, 0.5407360196113586], [2.051278591156006, 1.3761502504348755, -0.6980454325675964, -0.9109089970588684, 0.30898216366767883, -1.5805093050003052]], "bias1": [-2.0568838119506836, 1.111954689025879, -1.183261752128601, -3.3778574466705322, -2.293735980987549, -0.9514467716217041], "alpha1": 0.25047969818115234, "beta1": 2.6182830333709717, "weight2": [[1.0820351839065552, 1.126434564590454, 1.20140540599823, 1.5830566883087158, -1.1605671644210815, 3.5189568996429443], [3.3551156520843506, 1.0360809564590454, -1.9132158756256104, 2.1257591247558594, 1.4543668031692505, -2.066033363342285], [2.8283424377441406, -0.767647922039032, -2.278618812561035, 3.118715524673462, 3.220935583114624, -2.929257392883301], [-2.4204418659210205, -3.4142305850982666, 0.5205267071723938, 4.712718486785889, 2.9636898040771484, 2.3654656410217285], [-0.6579403877258301, -2.1870710849761963, -0.006542910356074572, 2.8319780826568604, 1.1052452325820923, 2.0623667240142822], [2.769118309020996, 1.9335156679153442, 0.6338031888008118, 1.7381396293640137, -1.2071566581726074, 2.1085457801818848]], "bias2": [-3.6370866298675537, -0.9619141221046448, -0.33967605233192444, -2.6475939750671387, -0.6322404742240906, -3.7353434562683105], "alpha2": 0.05517174303531647, "beta2": 7.934386253356934, "weight3": [[4.821744918823242, -0.22808559238910675, -2.965397834777832, 4.98131799697876, -2.8889787197113037, 4.882578372955322], [4.938831329345703, -4.760300159454346, -3.057222366333008, -3.6930131912231445, -0.4254133105278015, 3.980332612991333], [3.3138978481292725, -2.34843111038208, -4.871843338012695, -4.689378261566162, 3.1932060718536377, 4.470325469970703], [4.422275066375732, 4.69428825378418, 2.4410977363586426, -4.3045878410339355, -2.4265050888061523, -1.6308318376541138], [-2.3942136764526367, 5.363612651824951, 4.938107967376709, -4.136104106903076, -3.347926139831543, 4.332870006561279], [2.491992950439453, 2.584087610244751, -4.250174045562744, -4.398198127746582, -0.8067957162857056, 3.8777098655700684]], "bias3": [-0.2196769118309021, 0.052904289215803146, -1.9370492696762085, -0.1764289289712906, 0.21700574457645416, 0.30603456497192383]}, {"weight0": [[1.0702930688858032, 1.584024429321289, -0.03789224475622177, 0.14657652378082275, 0.7215002775192261, -0.6935702562332153], [0.43886664509773254, -1.2661409378051758, 1.456417202949524, -1.0335017442703247, 0.7883676290512085, -1.622667908668518], [0.9480587244033813, 1.0621285438537598, 0.6333482265472412, 0.7043688893318176, -1.3810155391693115, -1.0494263172149658], [0.7933905124664307, -0.18064604699611664, 0.48637327551841736, -0.2609800696372986, -0.47810667753219604, 1.7868049144744873], [0.16887058317661285, 1.0688533782958984, 1.6264121532440186, 1.419272780418396, 0.972550094127655, -0.38156893849372864], [-1.4282054901123047, 0.44390374422073364, 1.1049787998199463, -0.3012988567352295, 0.8561489582061768, -0.012471739202737808]], "bias0": [0.48657068610191345, 0.0231217872351408, 0.8446065783500671, -0.1577989161014557, -0.45639827847480774, 1.0473713874816895], "alpha0": 2.800992488861084, "beta0": 3.5485610961914062, "weight1": [[0.14528107643127441, 1.3976352214813232, -0.778525710105896, -0.8802079558372498, -1.6582568883895874, 1.036419153213501], [-1.1657648086547852, 0.3594311773777008, -1.300850510597229, -0.44833269715309143, 1.830880045890808, -0.8705905675888062], [0.39127877354621887, -1.1298788785934448, 0.9274009466171265, -0.9487493634223938, -1.3471180200576782, -0.5352056622505188], [0.6111552119255066, -0.1092267632484436, -1.5451290607452393, 0.8960728049278259, -1.9174162149429321, -0.3255634903907776], [0.8707269430160522, -1.2436012029647827, -1.3714234828948975, -0.985571026802063, 1.1379139423370361, 0.9652636051177979], [0.8430901169776917, 0.8459277749061584, 1.0211565494537354, 1.1080788373947144, -0.3820372521877289, -0.975990355014801]], "bias1": [0.3742809295654297, 0.3118233382701874, 0.6835901737213135, -0.809083878993988, -0.2353503257036209, -1.4716066122055054], "alpha1": 0.3448811173439026, "beta1": 2.019693374633789, "weight2": [[0.8494729399681091, -0.7175692319869995, -0.22317157685756683, 1.369516372680664, -1.3794353008270264, 1.760819435119629], [1.3406195640563965, -0.8899101614952087, -2.2893781661987305, 0.14751692116260529, 1.2138922214508057, -2.7171287536621094], [-1.6471632719039917, -0.05386006832122803, 2.151665449142456, -2.263859748840332, 1.3968075513839722, 0.620345413684845], [-1.1433424949645996, -1.606601595878601, -1.6762646436691284, -1.2040622234344482, -1.1650316715240479, -0.8771147727966309], [-0.3879587948322296, 2.0830743312835693, -1.2847177982330322, 0.3090035319328308, 2.3569066524505615, 0.7616668343544006], [0.6523791551589966, 1.3942652940750122, -1.045758605003357, -0.04313766956329346, -1.6815617084503174, 2.0144011974334717]], "bias2": [-0.6483553051948547, -0.2218809723854065, 0.5262852907180786, 2.4570562839508057, -1.3249614238739014, -1.4095966815948486], "alpha2": 0.5136932730674744, "beta2": 3.8556225299835205, "weight3": [[-1.4203617572784424, -1.1189244985580444, 0.3308732211589813, 3.3600003719329834, -3.0617563724517822, -2.9220848083496094], [-2.0884196758270264, -2.365203380584717, 3.033175468444824, 1.5002961158752441, 0.8486944437026978, -2.229400157928467], [-2.664642572402954, 2.3867764472961426, 1.5033453702926636, -1.4759477376937866, 3.2985422611236572, -3.255436897277832], [0.9349914193153381, -3.0866315364837646, 2.3066565990448, -0.38591665029525757, -0.11865027993917465, 2.6836509704589844], [-0.231399267911911, 2.0371363162994385, -2.4734511375427246, 2.2131004333496094, -2.81803035736084, -0.985164999961853], [0.8757956027984619, -1.744451642036438, -1.098543405532837, -3.1231439113616943, 2.0055830478668213, 2.3808393478393555]], "bias3": [1.7256697416305542, 0.3037794828414917, -1.900133728981018, -0.6016830205917358, 0.9533218145370483, 0.9357813000679016]}, {"weight0": [[1.0702930688858032, -1.584024429321289, 0.03789224475622177, -0.14657652378082275, 0.7215002775192261, -0.6935702562332153], [0.43886664509773254, 1.2661409378051758, -1.456417202949524, 1.0335017442703247, 0.7883676290512085, -1.622667908668518], [0.9480587244033813, -1.0621285438537598, -0.6333482265472412, -0.7043688893318176, -1.3810155391693115, -1.0494263172149658], [0.7933905124664307, 0.18064604699611664, -0.48637327551841736, 0.2609800696372986, -0.47810667753219604, 1.7868049144744873], [0.16887058317661285, -1.0688533782958984, -1.6264121532440186, -1.419272780418396, 0.972550094127655, -0.38156893849372864], [-1.4282054901123047, -0.44390374422073364, -1.1049787998199463, 0.3012988567352295, 0.8561489582061768, -0.012471739202737808]], "bias0": [0.48657068610191345, 0.0231217872351408, 0.8446065783500671, -0.1577989161014557, -0.45639827847480774, 1.0473713874816895], "alpha0": 2.800992488861084, "beta0": 3.5485610961914062, "weight1": [[0.14528107643127441, 1.3976352214813232, -0.778525710105896, -0.8802079558372498, -1.6582568883895874, 1.036419153213501], [-1.1657648086547852, 0.3594311773777008, -1.300850510597229, -0.44833269715309143, 1.830880045890808, -0.8705905675888062], [0.39127877354621887, -1.1298788785934448, 0.9274009466171265, -0.9487493634223938, -1.3471180200576782, -0.5352056622505188], [0.6111552119255066, -0.1092267632484436, -1.5451290607452393, 0.8960728049278259, -1.9174162149429321, -0.3255634903907776], [0.8707269430160522, -1.2436012029647827, -1.3714234828948975, -0.985571026802063, 1.1379139423370361, 0.9652636051177979], [0.8430901169776917, 0.8459277749061584, 1.0211565494537354, 1.1080788373947144, -0.3820372521877289, -0.975990355014801]], "bias1": [0.3742809295654297, 0.3118233382701874, 0.6835901737213135, -0.809083878993988, -0.2353503257036209, -1.4716066122055054], "alpha1": 0.3448811173439026, "beta1": 2.019693374633789, "weight2": [[0.8494729399681091, -0.7175692319869995, -0.22317157685756683, 1.369516372680664, -1.3794353008270264, 1.760819435119629], [1.3406195640563965, -0.8899101614952087, -2.2893781661987305, 0.14751692116260529, 1.2138922214508057, -2.7171287536621094], [-1.6471632719039917, -0.05386006832122803, 2.151665449142456, -2.263859748840332, 1.3968075513839722, 0.620345413684845], [-1.1433424949645996, -1.606601595878601, -1.6762646436691284, -1.2040622234344482, -1.1650316715240479, -0.8771147727966309], [-0.3879587948322296, 2.0830743312835693, -1.2847177982330322, 0.3090035319328308, 2.3569066524505615, 0.7616668343544006], [0.6523791551589966, 1.3942652940750122, -1.045758605003357, -0.04313766956329346, -1.6815617084503174, 2.0144011974334717]], "bias2": [-0.6483553051948547, -0.2218809723854065, 0.5262852907180786, 2.4570562839508057, -1.3249614238739014, -1.4095966815948486], "alpha2": 0.5136932730674744, "beta2": 3.8556225299835205, "weight3": [[-1.4203617572784424, -1.1189244985580444, 0.3308732211589813, 3.3600003719329834, -3.0617563724517822, -2.9220848083496094], [-2.0884196758270264, -2.365203380584717, 3.033175468444824, 1.5002961158752441, 0.8486944437026978, -2.229400157928467], [-2.664642572402954, 2.3867764472961426, 1.5033453702926636, -1.4759477376937866, 3.2985422611236572, -3.255436897277832], [0.9349914193153381, -3.0866315364837646, 2.3066565990448, -0.38591665029525757, -0.11865027993917465, 2.6836509704589844], [-0.231399267911911, 2.0371363162994385, -2.4734511375427246, 2.2131004333496094, -2.81803035736084, -0.985164999961853], [0.8757956027984619, -1.744451642036438, -1.098543405532837, -3.1231439113616943, 2.0055830478668213, 2.3808393478393555]], "bias3": [1.7256697416305542, 0.3037794828414917, -1.900133728981018, -0.6016830205917358, 0.9533218145370483, 0.9357813000679016]}]